digraph Tree {
node [shape=box, style="rounded", color="black", fontname=helvetica] ;
edge [fontname=helvetica] ;
0 [label="Hour <= 6.5\nmse = 105.9\nsamples = 146\nvalue = 14.5"] ;
1 [label="weekday <= 5.5\nmse = 53.0\nsamples = 36\nvalue = 21.7"] ;
0 -> 1 [labeldistance=2.5, labelangle=45, headlabel="True"] ;
2 [label="Hour <= 5.5\nmse = 19.7\nsamples = 24\nvalue = 24.9"] ;
1 -> 2 ;
3 [label="weekday <= 0.5\nmse = 14.2\nsamples = 20\nvalue = 25.6"] ;
2 -> 3 ;
4 [label="description_broken clouds <= 0.5\nmse = 22.0\nsamples = 4\nvalue = 22.6"] ;
3 -> 4 ;
5 [label="Hour <= 3.0\nmse = 5.5\nsamples = 2\nvalue = 25.4"] ;
4 -> 5 ;
6 [label="mse = 0.0\nsamples = 1\nvalue = 24.0"] ;
5 -> 6 ;
7 [label="mse = -0.0\nsamples = 1\nvalue = 29.4"] ;
5 -> 7 ;
8 [label="Hour <= 1.0\nmse = 22.7\nsamples = 2\nvalue = 19.8"] ;
4 -> 8 ;
9 [label="mse = 0.0\nsamples = 1\nvalue = 28.0"] ;
8 -> 9 ;
10 [label="mse = 0.0\nsamples = 1\nvalue = 17.0"] ;
8 -> 10 ;
11 [label="description_light intensity drizzle <= 0.5\nmse = 8.0\nsamples = 16\nvalue = 26.6"] ;
3 -> 11 ;
12 [label="Hour <= 4.5\nmse = 7.3\nsamples = 15\nvalue = 26.1"] ;
11 -> 12 ;
13 [label="description_few clouds <= 0.5\nmse = 7.1\nsamples = 12\nvalue = 25.6"] ;
12 -> 13 ;
14 [label="description_scattered clouds <= 0.5\nmse = 6.3\nsamples = 11\nvalue = 25.4"] ;
13 -> 14 ;
15 [label="weekday <= 1.5\nmse = 5.4\nsamples = 10\nvalue = 25.1"] ;
14 -> 15 ;
16 [label="description_mist <= 0.5\nmse = 8.6\nsamples = 4\nvalue = 26.4"] ;
15 -> 16 ;
17 [label="mse = 0.0\nsamples = 2\nvalue = 24.0"] ;
16 -> 17 ;
18 [label="Hour <= 2.0\nmse = 8.0\nsamples = 2\nvalue = 28.0"] ;
16 -> 18 ;
19 [label="mse = 0.0\nsamples = 1\nvalue = 30.0"] ;
18 -> 19 ;
20 [label="mse = 0.0\nsamples = 1\nvalue = 24.0"] ;
18 -> 20 ;
21 [label="Hour <= 2.5\nmse = 3.0\nsamples = 6\nvalue = 24.5"] ;
15 -> 21 ;
22 [label="description_mist <= 0.5\nmse = 0.8\nsamples = 3\nvalue = 23.4"] ;
21 -> 22 ;
23 [label="mse = 0.0\nsamples = 2\nvalue = 24.0"] ;
22 -> 23 ;
24 [label="mse = 0.0\nsamples = 1\nvalue = 22.0"] ;
22 -> 24 ;
25 [label="Hour <= 3.5\nmse = 1.8\nsamples = 3\nvalue = 26.1"] ;
21 -> 25 ;
26 [label="weekday <= 3.5\nmse = 0.2\nsamples = 2\nvalue = 26.8"] ;
25 -> 26 ;
27 [label="mse = 0.0\nsamples = 1\nvalue = 26.0"] ;
26 -> 27 ;
28 [label="mse = 0.0\nsamples = 1\nvalue = 27.0"] ;
26 -> 28 ;
29 [label="mse = 0.0\nsamples = 1\nvalue = 23.5"] ;
25 -> 29 ;
30 [label="mse = 0.0\nsamples = 1\nvalue = 30.0"] ;
14 -> 30 ;
31 [label="mse = 0.0\nsamples = 1\nvalue = 30.0"] ;
13 -> 31 ;
32 [label="weekday <= 2.5\nmse = 1.0\nsamples = 3\nvalue = 28.6"] ;
12 -> 32 ;
33 [label="mse = 0.0\nsamples = 1\nvalue = 29.5"] ;
32 -> 33 ;
34 [label="description_few clouds <= 0.5\nmse = 0.4\nsamples = 2\nvalue = 27.7"] ;
32 -> 34 ;
35 [label="mse = 0.0\nsamples = 1\nvalue = 28.3"] ;
34 -> 35 ;
36 [label="mse = 0.0\nsamples = 1\nvalue = 27.1"] ;
34 -> 36 ;
37 [label="mse = 0.0\nsamples = 1\nvalue = 30.0"] ;
11 -> 37 ;
38 [label="description_scattered clouds <= 0.5\nmse = 29.5\nsamples = 4\nvalue = 21.1"] ;
2 -> 38 ;
39 [label="weekday <= 2.5\nmse = 11.0\nsamples = 3\nvalue = 18.2"] ;
38 -> 39 ;
40 [label="mse = 0.0\nsamples = 1\nvalue = 12.1"] ;
39 -> 40 ;
41 [label="description_few clouds <= 0.5\nmse = 2.1\nsamples = 2\nvalue = 19.7"] ;
39 -> 41 ;
42 [label="mse = 0.0\nsamples = 1\nvalue = 22.2"] ;
41 -> 42 ;
43 [label="mse = 0.0\nsamples = 1\nvalue = 18.9"] ;
41 -> 43 ;
44 [label="mse = 0.0\nsamples = 1\nvalue = 28.5"] ;
38 -> 44 ;
45 [label="description_few clouds <= 0.5\nmse = 57.9\nsamples = 12\nvalue = 15.2"] ;
1 -> 45 ;
46 [label="Hour <= 2.5\nmse = 54.2\nsamples = 10\nvalue = 13.7"] ;
45 -> 46 ;
47 [label="description_scattered clouds <= 0.5\nmse = 44.5\nsamples = 4\nvalue = 11.1"] ;
46 -> 47 ;
48 [label="mse = 0.0\nsamples = 1\nvalue = 21.7"] ;
47 -> 48 ;
49 [label="Hour <= 0.5\nmse = 0.0\nsamples = 3\nvalue = 6.9"] ;
47 -> 49 ;
50 [label="mse = 0.0\nsamples = 1\nvalue = 6.5"] ;
49 -> 50 ;
51 [label="mse = 0.0\nsamples = 2\nvalue = 7.0"] ;
49 -> 51 ;
52 [label="description_scattered clouds <= 0.5\nmse = 53.0\nsamples = 6\nvalue = 15.5"] ;
46 -> 52 ;
53 [label="weather <= 0.5\nmse = 0.5\nsamples = 3\nvalue = 8.3"] ;
52 -> 53 ;
54 [label="mse = 0.0\nsamples = 1\nvalue = 7.0"] ;
53 -> 54 ;
55 [label="Hour <= 5.5\nmse = 0.2\nsamples = 2\nvalue = 8.6"] ;
53 -> 55 ;
56 [label="mse = 0.0\nsamples = 1\nvalue = 9.0"] ;
55 -> 56 ;
57 [label="mse = 0.0\nsamples = 1\nvalue = 8.2"] ;
55 -> 57 ;
58 [label="Hour <= 4.5\nmse = 0.2\nsamples = 3\nvalue = 22.8"] ;
52 -> 58 ;
59 [label="mse = 0.0\nsamples = 2\nvalue = 23.0"] ;
58 -> 59 ;
60 [label="mse = -0.0\nsamples = 1\nvalue = 21.9"] ;
58 -> 60 ;
61 [label="Hour <= 3.5\nmse = 0.2\nsamples = 2\nvalue = 23.3"] ;
45 -> 61 ;
62 [label="mse = 0.0\nsamples = 1\nvalue = 23.0"] ;
61 -> 62 ;
63 [label="mse = 0.0\nsamples = 1\nvalue = 24.0"] ;
61 -> 63 ;
64 [label="Hour <= 16.5\nmse = 99.7\nsamples = 110\nvalue = 11.9"] ;
0 -> 64 [labeldistance=2.5, labelangle=-45, headlabel="False"] ;
65 [label="description_light rain <= 0.5\nmse = 57.9\nsamples = 73\nvalue = 7.2"] ;
64 -> 65 ;
66 [label="description_moderate rain <= 0.5\nmse = 46.4\nsamples = 69\nvalue = 6.4"] ;
65 -> 66 ;
67 [label="weekday <= 3.5\nmse = 36.3\nsamples = 67\nvalue = 5.8"] ;
66 -> 67 ;
68 [label="Hour <= 12.5\nmse = 7.0\nsamples = 33\nvalue = 2.6"] ;
67 -> 68 ;
69 [label="description_scattered clouds <= 0.5\nmse = 0.6\nsamples = 20\nvalue = 1.0"] ;
68 -> 69 ;
70 [label="Hour <= 10.5\nmse = 0.2\nsamples = 19\nvalue = 0.9"] ;
69 -> 70 ;
71 [label="description_light intensity drizzle rain <= 0.5\nmse = 0.1\nsamples = 13\nvalue = 0.7"] ;
70 -> 71 ;
72 [label="Hour <= 7.5\nmse = 0.1\nsamples = 11\nvalue = 0.6"] ;
71 -> 72 ;
73 [label="weather <= 0.5\nmse = 0.0\nsamples = 2\nvalue = 0.2"] ;
72 -> 73 ;
74 [label="mse = 0.0\nsamples = 1\nvalue = 0.0"] ;
73 -> 74 ;
75 [label="mse = 0.0\nsamples = 1\nvalue = 0.4"] ;
73 -> 75 ;
76 [label="Hour <= 8.5\nmse = 0.0\nsamples = 9\nvalue = 0.7"] ;
72 -> 76 ;
77 [label="description_mist <= 0.5\nmse = 0.0\nsamples = 4\nvalue = 0.8"] ;
76 -> 77 ;
78 [label="weekday <= 2.5\nmse = 0.0\nsamples = 3\nvalue = 0.8"] ;
77 -> 78 ;
79 [label="mse = -0.0\nsamples = 2\nvalue = 0.8"] ;
78 -> 79 ;
80 [label="mse = 0.0\nsamples = 1\nvalue = 0.9"] ;
78 -> 80 ;
81 [label="mse = 0.0\nsamples = 1\nvalue = 1.0"] ;
77 -> 81 ;
82 [label="description_broken clouds <= 0.5\nmse = 0.0\nsamples = 5\nvalue = 0.5"] ;
76 -> 82 ;
83 [label="weekday <= 2.0\nmse = 0.0\nsamples = 3\nvalue = 0.4"] ;
82 -> 83 ;
84 [label="weekday <= 0.5\nmse = 0.0\nsamples = 2\nvalue = 0.5"] ;
83 -> 84 ;
85 [label="mse = 0.0\nsamples = 1\nvalue = 0.5"] ;
84 -> 85 ;
86 [label="mse = 0.0\nsamples = 1\nvalue = 0.5"] ;
84 -> 86 ;
87 [label="mse = 0.0\nsamples = 1\nvalue = 0.3"] ;
83 -> 87 ;
88 [label="weekday <= 0.5\nmse = 0.0\nsamples = 2\nvalue = 0.6"] ;
82 -> 88 ;
89 [label="mse = 0.0\nsamples = 1\nvalue = 0.8"] ;
88 -> 89 ;
90 [label="mse = -0.0\nsamples = 1\nvalue = 0.6"] ;
88 -> 90 ;
91 [label="Hour <= 9.0\nmse = 0.2\nsamples = 2\nvalue = 1.3"] ;
71 -> 91 ;
92 [label="mse = 0.0\nsamples = 1\nvalue = 1.8"] ;
91 -> 92 ;
93 [label="mse = 0.0\nsamples = 1\nvalue = 0.9"] ;
91 -> 93 ;
94 [label="weekday <= 1.0\nmse = 0.2\nsamples = 6\nvalue = 1.4"] ;
70 -> 94 ;
95 [label="Hour <= 11.5\nmse = 0.0\nsamples = 2\nvalue = 1.1"] ;
94 -> 95 ;
96 [label="mse = 0.0\nsamples = 1\nvalue = 1.3"] ;
95 -> 96 ;
97 [label="mse = 0.0\nsamples = 1\nvalue = 1.0"] ;
95 -> 97 ;
98 [label="weekday <= 2.5\nmse = 0.1\nsamples = 4\nvalue = 1.6"] ;
94 -> 98 ;
99 [label="Hour <= 11.5\nmse = 0.0\nsamples = 2\nvalue = 2.0"] ;
98 -> 99 ;
100 [label="mse = 0.0\nsamples = 1\nvalue = 1.9"] ;
99 -> 100 ;
101 [label="mse = 0.0\nsamples = 1\nvalue = 2.2"] ;
99 -> 101 ;
102 [label="Hour <= 11.5\nmse = 0.0\nsamples = 2\nvalue = 1.3"] ;
98 -> 102 ;
103 [label="mse = 0.0\nsamples = 1\nvalue = 1.2"] ;
102 -> 103 ;
104 [label="mse = -0.0\nsamples = 1\nvalue = 1.4"] ;
102 -> 104 ;
105 [label="mse = -0.0\nsamples = 1\nvalue = 4.4"] ;
69 -> 105 ;
106 [label="description_broken clouds <= 0.5\nmse = 7.6\nsamples = 13\nvalue = 4.6"] ;
68 -> 106 ;
107 [label="Hour <= 14.5\nmse = 4.0\nsamples = 8\nvalue = 3.2"] ;
106 -> 107 ;
108 [label="weather <= 0.5\nmse = 0.2\nsamples = 5\nvalue = 1.9"] ;
107 -> 108 ;
109 [label="Hour <= 13.5\nmse = 0.0\nsamples = 2\nvalue = 1.5"] ;
108 -> 109 ;
110 [label="mse = 0.0\nsamples = 1\nvalue = 1.4"] ;
109 -> 110 ;
111 [label="mse = 0.0\nsamples = 1\nvalue = 1.8"] ;
109 -> 111 ;
112 [label="Hour <= 13.5\nmse = 0.1\nsamples = 3\nvalue = 2.3"] ;
108 -> 112 ;
113 [label="weekday <= 1.0\nmse = 0.0\nsamples = 2\nvalue = 2.1"] ;
112 -> 113 ;
114 [label="mse = 0.0\nsamples = 1\nvalue = 2.0"] ;
113 -> 114 ;
115 [label="mse = 0.0\nsamples = 1\nvalue = 2.2"] ;
113 -> 115 ;
116 [label="mse = 0.0\nsamples = 1\nvalue = 2.5"] ;
112 -> 116 ;
117 [label="Hour <= 15.5\nmse = 3.1\nsamples = 3\nvalue = 5.4"] ;
107 -> 117 ;
118 [label="mse = 0.0\nsamples = 1\nvalue = 7.2"] ;
117 -> 118 ;
119 [label="weekday <= 1.0\nmse = 0.0\nsamples = 2\nvalue = 3.7"] ;
117 -> 119 ;
120 [label="mse = 0.0\nsamples = 1\nvalue = 3.8"] ;
119 -> 120 ;
121 [label="mse = 0.0\nsamples = 1\nvalue = 3.5"] ;
119 -> 121 ;
122 [label="weekday <= 1.0\nmse = 2.7\nsamples = 5\nvalue = 7.5"] ;
106 -> 122 ;
123 [label="Hour <= 14.5\nmse = 0.2\nsamples = 2\nvalue = 5.7"] ;
122 -> 123 ;
124 [label="mse = 0.0\nsamples = 1\nvalue = 5.0"] ;
123 -> 124 ;
125 [label="mse = 0.0\nsamples = 1\nvalue = 6.0"] ;
123 -> 125 ;
126 [label="Hour <= 15.0\nmse = 1.1\nsamples = 3\nvalue = 8.6"] ;
122 -> 126 ;
127 [label="Hour <= 13.5\nmse = 0.0\nsamples = 2\nvalue = 8.1"] ;
126 -> 127 ;
128 [label="mse = 0.0\nsamples = 1\nvalue = 8.0"] ;
127 -> 128 ;
129 [label="mse = 0.0\nsamples = 1\nvalue = 8.1"] ;
127 -> 129 ;
130 [label="mse = -0.0\nsamples = 1\nvalue = 10.6"] ;
126 -> 130 ;
131 [label="description_scattered clouds <= 0.5\nmse = 45.7\nsamples = 34\nvalue = 9.3"] ;
67 -> 131 ;
132 [label="weekday <= 5.5\nmse = 35.8\nsamples = 29\nvalue = 8.1"] ;
131 -> 132 ;
133 [label="Hour <= 9.5\nmse = 21.5\nsamples = 17\nvalue = 10.0"] ;
132 -> 133 ;
134 [label="weekday <= 4.5\nmse = 19.6\nsamples = 6\nvalue = 12.8"] ;
133 -> 134 ;
135 [label="description_mist <= 0.5\nmse = 11.9\nsamples = 3\nvalue = 9.5"] ;
134 -> 135 ;
136 [label="Hour <= 8.5\nmse = 0.2\nsamples = 2\nvalue = 6.7"] ;
135 -> 136 ;
137 [label="mse = 0.0\nsamples = 1\nvalue = 7.0"] ;
136 -> 137 ;
138 [label="mse = 0.0\nsamples = 1\nvalue = 6.0"] ;
136 -> 138 ;
139 [label="mse = 0.0\nsamples = 1\nvalue = 13.7"] ;
135 -> 139 ;
140 [label="description_broken clouds <= 0.5\nmse = 4.5\nsamples = 3\nvalue = 16.2"] ;
134 -> 140 ;
141 [label="mse = 0.0\nsamples = 1\nvalue = 20.4"] ;
140 -> 141 ;
142 [label="Hour <= 8.5\nmse = 0.2\nsamples = 2\nvalue = 15.2"] ;
140 -> 142 ;
143 [label="mse = 0.0\nsamples = 1\nvalue = 15.6"] ;
142 -> 143 ;
144 [label="mse = -0.0\nsamples = 1\nvalue = 14.7"] ;
142 -> 144 ;
145 [label="weekday <= 4.5\nmse = 12.2\nsamples = 11\nvalue = 7.9"] ;
133 -> 145 ;
146 [label="weather <= 0.5\nmse = 0.5\nsamples = 2\nvalue = 2.1"] ;
145 -> 146 ;
147 [label="mse = 0.0\nsamples = 1\nvalue = 1.3"] ;
146 -> 147 ;
148 [label="mse = -0.0\nsamples = 1\nvalue = 2.8"] ;
146 -> 148 ;
149 [label="Hour <= 11.5\nmse = 7.1\nsamples = 9\nvalue = 8.9"] ;
145 -> 149 ;
150 [label="Hour <= 10.5\nmse = 2.0\nsamples = 4\nvalue = 10.9"] ;
149 -> 150 ;
151 [label="mse = 0.0\nsamples = 2\nvalue = 11.8"] ;
150 -> 151 ;
152 [label="mse = 2.5\nsamples = 2\nvalue = 10.0"] ;
150 -> 152 ;
153 [label="Hour <= 15.5\nmse = 3.2\nsamples = 5\nvalue = 6.6"] ;
149 -> 153 ;
154 [label="Hour <= 14.5\nmse = 2.8\nsamples = 4\nvalue = 6.1"] ;
153 -> 154 ;
155 [label="Hour <= 13.0\nmse = 0.1\nsamples = 2\nvalue = 7.8"] ;
154 -> 155 ;
156 [label="mse = 0.0\nsamples = 1\nvalue = 7.5"] ;
155 -> 156 ;
157 [label="mse = 0.0\nsamples = 1\nvalue = 8.0"] ;
155 -> 157 ;
158 [label="mse = 0.0\nsamples = 2\nvalue = 4.4"] ;
154 -> 158 ;
159 [label="mse = -0.0\nsamples = 1\nvalue = 8.6"] ;
153 -> 159 ;
160 [label="description_few clouds <= 0.5\nmse = 43.0\nsamples = 12\nvalue = 5.6"] ;
132 -> 160 ;
161 [label="description_shower rain <= 0.5\nmse = 33.6\nsamples = 10\nvalue = 3.9"] ;
160 -> 161 ;
162 [label="description_proximity shower rain <= 0.5\nmse = 15.1\nsamples = 9\nvalue = 2.7"] ;
161 -> 162 ;
163 [label="Hour <= 13.5\nmse = 17.5\nsamples = 7\nvalue = 3.3"] ;
162 -> 163 ;
164 [label="Hour <= 7.5\nmse = 2.5\nsamples = 5\nvalue = 2.0"] ;
163 -> 164 ;
165 [label="mse = 0.0\nsamples = 1\nvalue = 6.1"] ;
164 -> 165 ;
166 [label="Hour <= 12.5\nmse = 0.1\nsamples = 4\nvalue = 1.4"] ;
164 -> 166 ;
167 [label="Hour <= 10.5\nmse = 0.0\nsamples = 3\nvalue = 1.3"] ;
166 -> 167 ;
168 [label="mse = 0.0\nsamples = 2\nvalue = 1.3"] ;
167 -> 168 ;
169 [label="mse = 0.0\nsamples = 1\nvalue = 1.1"] ;
167 -> 169 ;
170 [label="mse = -0.0\nsamples = 1\nvalue = 2.0"] ;
166 -> 170 ;
171 [label="Hour <= 15.0\nmse = 38.7\nsamples = 2\nvalue = 7.0"] ;
163 -> 171 ;
172 [label="mse = 0.0\nsamples = 1\nvalue = 15.8"] ;
171 -> 172 ;
173 [label="mse = -0.0\nsamples = 1\nvalue = 2.6"] ;
171 -> 173 ;
174 [label="Hour <= 14.5\nmse = 0.0\nsamples = 2\nvalue = 0.5"] ;
162 -> 174 ;
175 [label="mse = 0.0\nsamples = 1\nvalue = 0.5"] ;
174 -> 175 ;
176 [label="mse = 0.0\nsamples = 1\nvalue = 0.6"] ;
174 -> 176 ;
177 [label="mse = 0.0\nsamples = 1\nvalue = 20.4"] ;
161 -> 177 ;
178 [label="Hour <= 9.5\nmse = 5.1\nsamples = 2\nvalue = 14.0"] ;
160 -> 178 ;
179 [label="mse = 0.0\nsamples = 1\nvalue = 10.9"] ;
178 -> 179 ;
180 [label="mse = -0.0\nsamples = 1\nvalue = 15.6"] ;
178 -> 180 ;
181 [label="weekday <= 5.5\nmse = 42.2\nsamples = 5\nvalue = 16.6"] ;
131 -> 181 ;
182 [label="Hour <= 11.0\nmse = 39.9\nsamples = 2\nvalue = 11.1"] ;
181 -> 182 ;
183 [label="mse = 0.0\nsamples = 1\nvalue = 20.0"] ;
182 -> 183 ;
184 [label="mse = -0.0\nsamples = 1\nvalue = 6.6"] ;
182 -> 184 ;
185 [label="Hour <= 10.0\nmse = 4.3\nsamples = 3\nvalue = 20.7"] ;
181 -> 185 ;
186 [label="mse = 0.0\nsamples = 1\nvalue = 24.2"] ;
185 -> 186 ;
187 [label="Hour <= 14.0\nmse = 0.1\nsamples = 2\nvalue = 19.5"] ;
185 -> 187 ;
188 [label="mse = 0.0\nsamples = 1\nvalue = 19.0"] ;
187 -> 188 ;
189 [label="mse = 0.0\nsamples = 1\nvalue = 19.8"] ;
187 -> 189 ;
190 [label="Hour <= 14.5\nmse = 0.7\nsamples = 2\nvalue = 25.8"] ;
66 -> 190 ;
191 [label="mse = 0.0\nsamples = 1\nvalue = 25.2"] ;
190 -> 191 ;
192 [label="mse = -0.0\nsamples = 1\nvalue = 27.0"] ;
190 -> 192 ;
193 [label="Hour <= 10.0\nmse = 54.8\nsamples = 4\nvalue = 21.1"] ;
65 -> 193 ;
194 [label="mse = 0.0\nsamples = 1\nvalue = 20.0"] ;
193 -> 194 ;
195 [label="Hour <= 14.5\nmse = 81.3\nsamples = 3\nvalue = 21.6"] ;
193 -> 195 ;
196 [label="mse = 0.0\nsamples = 1\nvalue = 24.4"] ;
195 -> 196 ;
197 [label="mse = 104.9\nsamples = 2\nvalue = 20.6"] ;
195 -> 197 ;
198 [label="Hour <= 19.5\nmse = 50.9\nsamples = 37\nvalue = 21.2"] ;
64 -> 198 ;
199 [label="weekday <= 5.5\nmse = 60.3\nsamples = 16\nvalue = 17.6"] ;
198 -> 199 ;
200 [label="weather <= 0.5\nmse = 28.9\nsamples = 13\nvalue = 14.1"] ;
199 -> 200 ;
201 [label="Hour <= 17.5\nmse = 32.5\nsamples = 4\nvalue = 20.4"] ;
200 -> 201 ;
202 [label="description_light rain <= 0.5\nmse = 3.0\nsamples = 2\nvalue = 16.0"] ;
201 -> 202 ;
203 [label="mse = 0.0\nsamples = 1\nvalue = 14.8"] ;
202 -> 203 ;
204 [label="mse = -0.0\nsamples = 1\nvalue = 18.4"] ;
202 -> 204 ;
205 [label="description_light rain <= 0.5\nmse = 3.6\nsamples = 2\nvalue = 27.0"] ;
201 -> 205 ;
206 [label="mse = 0.0\nsamples = 1\nvalue = 28.9"] ;
205 -> 206 ;
207 [label="mse = 0.0\nsamples = 1\nvalue = 25.1"] ;
205 -> 207 ;
208 [label="weekday <= 4.5\nmse = 8.5\nsamples = 9\nvalue = 11.9"] ;
200 -> 208 ;
209 [label="weekday <= 0.5\nmse = 7.2\nsamples = 6\nvalue = 13.0"] ;
208 -> 209 ;
210 [label="mse = 0.0\nsamples = 1\nvalue = 8.5"] ;
209 -> 210 ;
211 [label="description_broken clouds <= 0.5\nmse = 5.3\nsamples = 5\nvalue = 13.6"] ;
209 -> 211 ;
212 [label="Hour <= 17.5\nmse = 0.2\nsamples = 3\nvalue = 14.2"] ;
211 -> 212 ;
213 [label="mse = 0.0\nsamples = 1\nvalue = 13.8"] ;
212 -> 213 ;
214 [label="mse = 0.0\nsamples = 2\nvalue = 14.6"] ;
212 -> 214 ;
215 [label="mse = 11.8\nsamples = 2\nvalue = 12.4"] ;
211 -> 215 ;
216 [label="description_broken clouds <= 0.5\nmse = 4.5\nsamples = 3\nvalue = 9.8"] ;
208 -> 216 ;
217 [label="mse = 0.0\nsamples = 1\nvalue = 9.2"] ;
216 -> 217 ;
218 [label="mse = 7.1\nsamples = 2\nvalue = 10.2"] ;
216 -> 218 ;
219 [label="Hour <= 17.5\nmse = 1.4\nsamples = 3\nvalue = 28.5"] ;
199 -> 219 ;
220 [label="description_scattered clouds <= 0.5\nmse = 1.7\nsamples = 2\nvalue = 27.8"] ;
219 -> 220 ;
221 [label="mse = 0.0\nsamples = 1\nvalue = 26.9"] ;
220 -> 221 ;
222 [label="mse = 0.0\nsamples = 1\nvalue = 29.6"] ;
220 -> 222 ;
223 [label="mse = -0.0\nsamples = 1\nvalue = 29.3"] ;
219 -> 223 ;
224 [label="description_proximity shower rain <= 0.5\nmse = 25.3\nsamples = 21\nvalue = 24.0"] ;
198 -> 224 ;
225 [label="Hour <= 20.5\nmse = 24.0\nsamples = 20\nvalue = 23.2"] ;
224 -> 225 ;
226 [label="description_light rain <= 0.5\nmse = 17.4\nsamples = 3\nvalue = 18.1"] ;
225 -> 226 ;
227 [label="weekday <= 5.5\nmse = 0.5\nsamples = 2\nvalue = 14.0"] ;
226 -> 227 ;
228 [label="mse = 0.0\nsamples = 1\nvalue = 14.7"] ;
227 -> 228 ;
229 [label="mse = 0.0\nsamples = 1\nvalue = 13.2"] ;
227 -> 229 ;
230 [label="mse = 0.0\nsamples = 1\nvalue = 22.2"] ;
226 -> 230 ;
231 [label="description_scattered clouds <= 0.5\nmse = 19.9\nsamples = 17\nvalue = 24.1"] ;
225 -> 231 ;
232 [label="Hour <= 21.5\nmse = 18.9\nsamples = 14\nvalue = 23.3"] ;
231 -> 232 ;
233 [label="weather <= 0.5\nmse = 15.5\nsamples = 8\nvalue = 25.3"] ;
232 -> 233 ;
234 [label="description_moderate rain <= 0.5\nmse = 15.5\nsamples = 4\nvalue = 21.8"] ;
233 -> 234 ;
235 [label="weekday <= 3.5\nmse = 1.8\nsamples = 3\nvalue = 19.6"] ;
234 -> 235 ;
236 [label="description_light intensity shower rain <= 0.5\nmse = 0.0\nsamples = 2\nvalue = 18.7"] ;
235 -> 236 ;
237 [label="mse = 0.0\nsamples = 1\nvalue = 18.8"] ;
236 -> 237 ;
238 [label="mse = 0.0\nsamples = 1\nvalue = 18.6"] ;
236 -> 238 ;
239 [label="mse = 0.0\nsamples = 1\nvalue = 21.5"] ;
235 -> 239 ;
240 [label="mse = 0.0\nsamples = 1\nvalue = 28.3"] ;
234 -> 240 ;
241 [label="weekday <= 5.0\nmse = 4.7\nsamples = 4\nvalue = 27.2"] ;
233 -> 241 ;
242 [label="weekday <= 3.0\nmse = 4.1\nsamples = 3\nvalue = 25.3"] ;
241 -> 242 ;
243 [label="weekday <= 1.5\nmse = 1.0\nsamples = 2\nvalue = 26.6"] ;
242 -> 243 ;
244 [label="mse = 0.0\nsamples = 1\nvalue = 25.6"] ;
243 -> 244 ;
245 [label="mse = -0.0\nsamples = 1\nvalue = 27.6"] ;
243 -> 245 ;
246 [label="mse = 0.0\nsamples = 1\nvalue = 22.6"] ;
242 -> 246 ;
247 [label="mse = -0.0\nsamples = 1\nvalue = 28.7"] ;
241 -> 247 ;
248 [label="weather <= 0.5\nmse = 12.2\nsamples = 6\nvalue = 20.8"] ;
232 -> 248 ;
249 [label="Hour <= 22.5\nmse = 0.1\nsamples = 2\nvalue = 22.7"] ;
248 -> 249 ;
250 [label="mse = 0.0\nsamples = 1\nvalue = 23.1"] ;
249 -> 250 ;
251 [label="mse = 0.0\nsamples = 1\nvalue = 22.4"] ;
249 -> 251 ;
252 [label="weekday <= 3.0\nmse = 17.1\nsamples = 4\nvalue = 18.4"] ;
248 -> 252 ;
253 [label="Hour <= 22.5\nmse = 3.3\nsamples = 2\nvalue = 22.2"] ;
252 -> 253 ;
254 [label="mse = 0.0\nsamples = 1\nvalue = 20.4"] ;
253 -> 254 ;
255 [label="mse = 0.0\nsamples = 1\nvalue = 24.0"] ;
253 -> 255 ;
256 [label="Hour <= 22.5\nmse = 2.8\nsamples = 2\nvalue = 14.7"] ;
252 -> 256 ;
257 [label="mse = 0.0\nsamples = 1\nvalue = 13.0"] ;
256 -> 257 ;
258 [label="mse = 0.0\nsamples = 1\nvalue = 16.4"] ;
256 -> 258 ;
259 [label="weekday <= 1.5\nmse = 4.0\nsamples = 3\nvalue = 28.3"] ;
231 -> 259 ;
260 [label="mse = 0.0\nsamples = 1\nvalue = 24.9"] ;
259 -> 260 ;
261 [label="Hour <= 22.5\nmse = 0.2\nsamples = 2\nvalue = 29.4"] ;
259 -> 261 ;
262 [label="mse = 0.0\nsamples = 1\nvalue = 29.1"] ;
261 -> 262 ;
263 [label="mse = 0.0\nsamples = 1\nvalue = 30.0"] ;
261 -> 263 ;
264 [label="mse = -0.0\nsamples = 1\nvalue = 29.5"] ;
224 -> 264 ;
}